digraph Tree {
node [shape=box, style="rounded", color="black", fontname=helvetica] ;
edge [fontname=helvetica] ;
0 [label="sepal length <= 5.5\ngini = 0.7\nsamples = 75\nvalue = [43, 36, 41]"] ;
1 [label="petal width <= 0.7\ngini = 0.2\nsamples = 25\nvalue = [40, 6, 0]"] ;
0 -> 1 [labeldistance=2.5, labelangle=45, headlabel="True"] ;
2 [label="gini = 0.0\nsamples = 21\nvalue = [40, 0, 0]"] ;
1 -> 2 ;
3 [label="gini = 0.0\nsamples = 4\nvalue = [0, 6, 0]"] ;
1 -> 3 ;
4 [label="petal length <= 5.0\ngini = 0.5\nsamples = 50\nvalue = [3, 30, 41]"] ;
0 -> 4 [labeldistance=2.5, labelangle=-45, headlabel="False"] ;
5 [label="sepal width <= 3.4\ngini = 0.3\nsamples = 23\nvalue = [3, 29, 2]"] ;
4 -> 5 ;
6 [label="petal width <= 1.6\ngini = 0.1\nsamples = 22\nvalue = [0, 29, 2]"] ;
5 -> 6 ;
7 [label="gini = 0.0\nsamples = 20\nvalue = [0, 29, 0]"] ;
6 -> 7 ;
8 [label="gini = 0.0\nsamples = 2\nvalue = [0, 0, 2]"] ;
6 -> 8 ;
9 [label="gini = 0.0\nsamples = 1\nvalue = [3, 0, 0]"] ;
5 -> 9 ;
10 [label="sepal length <= 6.0\ngini = 0.0\nsamples = 27\nvalue = [0, 1, 39]"] ;
4 -> 10 ;
11 [label="petal length <= 5.0\ngini = 0.4\nsamples = 4\nvalue = [0, 1, 3]"] ;
10 -> 11 ;
12 [label="gini = 0.0\nsamples = 1\nvalue = [0, 0, 1]"] ;
11 -> 12 ;
13 [label="sepal length <= 6.0\ngini = 0.4\nsamples = 3\nvalue = [0, 1, 2]"] ;
11 -> 13 ;
14 [label="gini = 0.0\nsamples = 2\nvalue = [0, 0, 2]"] ;
13 -> 14 ;
15 [label="gini = 0.0\nsamples = 1\nvalue = [0, 1, 0]"] ;
13 -> 15 ;
16 [label="gini = 0.0\nsamples = 23\nvalue = [0, 0, 36]"] ;
10 -> 16 ;
}